digraph Tree {
node [shape=box] ;
0 [label="p2lhigh <= 7.05\ngini = 0.582\nsamples = 100\nvalue = [23, 57, 20]"] ;
1 [label="p2lhigh <= 5.85\ngini = 0.502\nsamples = 77\nvalue = [23, 49, 5]"] ;
0 -> 1 [labeldistance=2.5, labelangle=45, headlabel="True"] ;
2 [label="p1high <= 5.7\ngini = 0.54\nsamples = 47\nvalue = [23, 22, 2]"] ;
1 -> 2 ;
3 [label="p2low <= 0.75\ngini = 0.302\nsamples = 27\nvalue = [22, 5, 0]"] ;
2 -> 3 ;
4 [label="p2lhigh <= 4.95\ngini = 0.473\nsamples = 13\nvalue = [8, 5, 0]"] ;
3 -> 4 ;
5 [label="gini = 0.0\nsamples = 4\nvalue = [4, 0, 0]"] ;
4 -> 5 ;
6 [label="p1high <= 5.1\ngini = 0.494\nsamples = 9\nvalue = [4, 5, 0]"] ;
4 -> 6 ;
7 [label="p2lhigh <= 5.05\ngini = 0.444\nsamples = 6\nvalue = [4, 2, 0]"] ;
6 -> 7 ;
8 [label="gini = 0.0\nsamples = 1\nvalue = [0, 1, 0]"] ;
7 -> 8 ;
9 [label="p2lhigh <= 5.5\ngini = 0.32\nsamples = 5\nvalue = [4, 1, 0]"] ;
7 -> 9 ;
10 [label="gini = 0.0\nsamples = 3\nvalue = [3, 0, 0]"] ;
9 -> 10 ;
11 [label="p1low <= 1.0\ngini = 0.5\nsamples = 2\nvalue = [1, 1, 0]"] ;
9 -> 11 ;
12 [label="gini = 0.0\nsamples = 1\nvalue = [0, 1, 0]"] ;
11 -> 12 ;
13 [label="gini = 0.0\nsamples = 1\nvalue = [1, 0, 0]"] ;
11 -> 13 ;
14 [label="gini = 0.0\nsamples = 3\nvalue = [0, 3, 0]"] ;
6 -> 14 ;
15 [label="gini = 0.0\nsamples = 14\nvalue = [14, 0, 0]"] ;
3 -> 15 ;
16 [label="p2low <= 1.35\ngini = 0.265\nsamples = 20\nvalue = [1, 17, 2]"] ;
2 -> 16 ;
17 [label="p1low <= 0.35\ngini = 0.188\nsamples = 19\nvalue = [0, 17, 2]"] ;
16 -> 17 ;
18 [label="gini = 0.0\nsamples = 1\nvalue = [0, 0, 1]"] ;
17 -> 18 ;
19 [label="p1high <= 7.05\ngini = 0.105\nsamples = 18\nvalue = [0, 17, 1]"] ;
17 -> 19 ;
20 [label="gini = 0.0\nsamples = 15\nvalue = [0, 15, 0]"] ;
19 -> 20 ;
21 [label="p2low <= 0.85\ngini = 0.444\nsamples = 3\nvalue = [0, 2, 1]"] ;
19 -> 21 ;
22 [label="gini = 0.0\nsamples = 2\nvalue = [0, 2, 0]"] ;
21 -> 22 ;
23 [label="gini = 0.0\nsamples = 1\nvalue = [0, 0, 1]"] ;
21 -> 23 ;
24 [label="gini = 0.0\nsamples = 1\nvalue = [1, 0, 0]"] ;
16 -> 24 ;
25 [label="p1high <= 6.95\ngini = 0.18\nsamples = 30\nvalue = [0, 27, 3]"] ;
1 -> 25 ;
26 [label="p2low <= 0.45\ngini = 0.071\nsamples = 27\nvalue = [0, 26, 1]"] ;
25 -> 26 ;
27 [label="p1high <= 5.55\ngini = 0.5\nsamples = 2\nvalue = [0, 1, 1]"] ;
26 -> 27 ;
28 [label="gini = 0.0\nsamples = 1\nvalue = [0, 1, 0]"] ;
27 -> 28 ;
29 [label="gini = 0.0\nsamples = 1\nvalue = [0, 0, 1]"] ;
27 -> 29 ;
30 [label="gini = 0.0\nsamples = 25\nvalue = [0, 25, 0]"] ;
26 -> 30 ;
31 [label="p2low <= 1.2\ngini = 0.444\nsamples = 3\nvalue = [0, 1, 2]"] ;
25 -> 31 ;
32 [label="gini = 0.0\nsamples = 2\nvalue = [0, 0, 2]"] ;
31 -> 32 ;
33 [label="gini = 0.0\nsamples = 1\nvalue = [0, 1, 0]"] ;
31 -> 33 ;
34 [label="p2lhigh <= 7.55\ngini = 0.454\nsamples = 23\nvalue = [0, 8, 15]"] ;
0 -> 34 [labeldistance=2.5, labelangle=-45, headlabel="False"] ;
35 [label="p2lhigh <= 7.35\ngini = 0.5\nsamples = 14\nvalue = [0, 7, 7]"] ;
34 -> 35 ;
36 [label="p2low <= 1.35\ngini = 0.375\nsamples = 8\nvalue = [0, 2, 6]"] ;
35 -> 36 ;
37 [label="p1high <= 5.4\ngini = 0.245\nsamples = 7\nvalue = [0, 1, 6]"] ;
36 -> 37 ;
38 [label="gini = 0.0\nsamples = 1\nvalue = [0, 1, 0]"] ;
37 -> 38 ;
39 [label="gini = 0.0\nsamples = 6\nvalue = [0, 0, 6]"] ;
37 -> 39 ;
40 [label="gini = 0.0\nsamples = 1\nvalue = [0, 1, 0]"] ;
36 -> 40 ;
41 [label="p2low <= 0.55\ngini = 0.278\nsamples = 6\nvalue = [0, 5, 1]"] ;
35 -> 41 ;
42 [label="gini = 0.0\nsamples = 1\nvalue = [0, 0, 1]"] ;
41 -> 42 ;
43 [label="gini = 0.0\nsamples = 5\nvalue = [0, 5, 0]"] ;
41 -> 43 ;
44 [label="p1low <= 0.55\ngini = 0.198\nsamples = 9\nvalue = [0, 1, 8]"] ;
34 -> 44 ;
45 [label="gini = 0.0\nsamples = 1\nvalue = [0, 1, 0]"] ;
44 -> 45 ;
46 [label="gini = 0.0\nsamples = 8\nvalue = [0, 0, 8]"] ;
44 -> 46 ;
}